1.000000000000000000e+00
1.158216282104440609e-06
1.053366344908153035e-01
1.158216281971011532e-06
1.053366344908053115e-01
1.341464955977293390e-12
1.220026051693349164e-07
1.220026051552915072e-07
1.109580656585056752e-02
-1.029423033244838623e-02
1.158216282104440609e-06
-1.029423033245539972e-02
-1.192294518278325235e-08
-1.084359577894118644e-03
-1.192294518140157948e-08
-1.084359577893276869e-03
1.059711781375726104e-04
1.341464956131833185e-12
1.220026051693464837e-07
1.158216281971011532e-06
1.341464955977293390e-12
1.220026051552915072e-07
-1.192294518277512943e-08
1.341464955977293390e-12
1.220026051693349164e-07
1.553706553885417853e-18
1.413054037662830817e-13
1.413054037500177796e-13
1.285134382764948554e-08
8.440583879915117965e-03
1.053366344908153035e-01
1.220026051693464837e-07
1.109580656585162049e-02
1.158216282104440609e-06
-1.192294518140157948e-08
1.341464955822753595e-12
1.220026051552799399e-07
-1.192294518278325235e-08
-1.380934924133826820e-14
-1.255922918772866727e-09
1.553706553706427316e-18
1.413054037500044005e-13
1.413054037337390984e-13
1.285134382616898279e-08
-1.380934923973799286e-14
-1.255922918771891688e-09
1.227375439527267168e-10
1.341464956131833185e-12
1.220026051693464837e-07
1.962302062100481637e-01
1.158216281971011532e-06
-1.084359577893379868e-03
9.776021679059742096e-09
8.891026990476021520e-04
-8.688931460025628808e-05
-1.192294518140970240e-08
-1.380934923974740081e-14
-1.255922918628181464e-09
-1.380934923814712547e-14
-1.255922918627206632e-09
1.227375439385870982e-10
1.341464955977293390e-12
1.220026051552915072e-07
1.220026051552915072e-07
1.109580656585056752e-02
1.413054037500178048e-13
1.285134382764948554e-08
1.285134382617020040e-08
1.168794920607789780e-03
1.053366344908053115e-01
1.220026051693349164e-07
1.109580656585056752e-02
-1.084359577894118644e-03
-1.255922918772866520e-09
-1.142227885132475397e-04
2.272770198470068947e-07
2.067022950760319736e-02
-2.020038940911455562e-03
1.341464955977293390e-12
1.553706553885417853e-18
1.413054037500178048e-13
-1.255922918627325746e-09
-1.142227885131588656e-04
1.116264725803856433e-05
-1.192294518277512943e-08
1.341464955977293390e-12
1.220026051693349164e-07
1.553706553885417853e-18
1.413054037662830817e-13
1.413054037500177796e-13
1.285134382764948554e-08
8.440583879879280313e-03
9.776021680144453812e-09
8.891026990439114194e-04
-8.688931459982817730e-05
9.776021680185961735e-09
-1.084359577893276869e-03
2.013526697035348395e-02
1.158216282104440609e-06
-1.192294518140157948e-08
-1.380934923973799286e-14
1.341464955822753595e-12
1.220026051552799399e-07
1.553706553706427316e-18
1.413054037500044005e-13
1.413054037337390984e-13
1.285134382616898279e-08
-1.192294518278325235e-08
-1.380934924133826820e-14
-1.255922918772866727e-09
1.220026051552799399e-07
1.109580656584951454e-02
1.413054037500044005e-13
1.285134382764826627e-08
1.285134382616898113e-08
1.168794920607678974e-03
-1.380934923973799286e-14
-1.255922918771891688e-09
1.227375439527267168e-10
-1.084359577894015644e-03
-1.255922918772747406e-09
-1.142227885132367113e-04
2.272770198731896889e-07
1.341464956131833185e-12
1.220026051693464837e-07
9.776021679059742096e-09
1.132274748289298496e-14
1.029773222499937222e-09
-1.006366189109119315e-10
1.553706553706427316e-18
1.413054037500044005e-13
1.799528228115161832e-24
1.636622193725969593e-19
1.636622193537582349e-19
1.488463566639129466e-14
2.332099404689652730e-08
2.120981257230909831e-03
-2.072770759983001698e-04
-1.255922918627206632e-09
-1.142227885131480371e-04
1.116264725803750554e-05
-1.380934923974740081e-14
-1.599421313474201710e-20
-1.454630373423290361e-15
1.158216281971011532e-06
1.962302062100850786e-01
2.272770198732324641e-07
2.067022950760904684e-02
-2.020038940910459397e-03
1.341464956131833185e-12
1.553706554064408389e-18
1.413054037662964860e-13
-1.192294518140970240e-08
-1.380934923974740081e-14
-1.255922918628181464e-09
-1.029423033244838623e-02
-1.192294518277512943e-08
-1.084359577893379868e-03
-1.599421313288855328e-20
-1.454630373422161107e-15
1.421566218151807450e-16
7.124345623358045113e-05
8.891026990476865030e-04
-1.380934923814712547e-14
-1.255922918627206632e-09
1.227375439385870982e-10
1.220026051552915072e-07
1.413054037500178048e-13
1.285134382617020205e-08
1.059711781375004161e-04
2.632359449349775039e-13
2.394059637054167590e-08
-2.339641991848657650e-09
1.341464955977293390e-12
1.220026051552915072e-07
1.656297515281919498e-03
2.272770198470068947e-07
-1.255922918627325953e-09
1.132274748158857979e-14
1.029773222381305047e-09
-1.006366188993183619e-10
1.341464955977293390e-12
1.553706553885417853e-18
1.413054037500178048e-13
9.776021680144453812e-09
1.132274748414931695e-14
1.029773222495662560e-09
-1.006366189104160884e-10
1.341464955977293390e-12
1.553706553885417853e-18
1.413054037500177796e-13
2.067022950760515759e-02
1.656297515289263667e-03
-1.380934924132886025e-14
-1.192294518277512943e-08
1.220026051693349164e-07
1.413054037662830817e-13
1.285134382764948554e-08
1.029773222381402654e-09
9.365508603437462198e-05
-9.152627973204657539e-06
1.341464955977293390e-12
1.220026051693349164e-07
1.553706553885417853e-18
1.413054037662830817e-13
1.413054037500177796e-13
1.285134382764948554e-08
2.332099404958315699e-08
3.850629382924526667e-02
-1.255922918771891688e-09
2.632359449046521256e-13
2.394059636778366714e-08
-2.339641991579125810e-09
-1.192294518140157948e-08
-1.084359577893276869e-03
-1.380934923973799286e-14
-1.255922918771891688e-09
-1.255922918627325746e-09
-1.142227885131588791e-04
1.059711781375726104e-04
1.227375439527267168e-10
1.116264725803856433e-05
1.227375439385034754e-10
1.116264725802989918e-05
-1.090891716349091316e-06
9.776021680185961735e-09
1.553706553885417853e-18
1.413054037662830817e-13
1.799528228322471281e-24
1.636622193914512117e-19
1.636622193726124631e-19
1.488463566810603845e-14
1.053366344908153035e-01
1.220026051693464837e-07
1.109580656585162049e-02
2.394059636778594023e-08
2.177332410483663258e-03
-2.127841035760036370e-04
1.413054037337390984e-13
1.285134382616898279e-08
1.636622193537582589e-19
1.488463566639129466e-14
1.488463566467796450e-14
1.353717307332957911e-09
-1.255922918628181464e-09
-1.454630373423290164e-15
-1.322946934281747196e-10
-1.454630373254722422e-15
-1.322946934280720199e-10
1.292875980415933293e-11
-1.380934924133826820e-14
-1.599421313658458738e-20
-1.454630373590867097e-15
2.013526697036129021e-02
2.332099404959219642e-08
2.120981257231933318e-03
-2.072770759982393190e-04
1.341464955822753595e-12
1.553706553706427316e-18
1.413054037337390984e-13
1.699534098070313312e-04
1.158216282104440609e-06
8.891026990476021520e-04
-1.380934923973799286e-14
8.251533100312798604e-11
-1.192294518140157948e-08
9.776021679018235827e-09
1.132274748284491020e-14
1.029773222377030384e-09
-1.006366188988225188e-10
1.341464955822753595e-12
1.220026051552799399e-07
-1.380934923973799286e-14
1.699534098078188144e-04
1.553706553706427316e-18
1.413054037500044005e-13
1.413054037337390984e-13
1.285134382616898279e-08
-1.599421313473112055e-20
-1.454630373589737843e-15
1.421566218315574974e-16
2.701075501997628964e-14
2.456555026163186454e-09
-2.400716843282307930e-10
-1.192294518278325235e-08
-1.380934924133826820e-14
-1.255922918772866727e-09
1.918350750208647551e-09
1.132274748289298654e-14
3.951147589688367920e-03
2.332099404689652730e-08
2.272770198732324641e-07
2.632359449653523596e-13
2.394059637054845216e-08
-2.339641991847504147e-09
-1.380934923973799286e-14
-1.255922918771891688e-09
1.227375439527267168e-10
8.891026990439114194e-04
1.029773222495662353e-09
9.365508603398585419e-05
-9.152627973159563199e-06
1.571433887542524332e-01
1.220026051693464837e-07
1.413054037662964860e-13
1.285134382765070480e-08
1.413054037500044005e-13
1.285134382764826627e-08
1.636622193725969593e-19
1.488463566810462482e-14
1.488463566639129150e-14
1.353717307488780748e-09
-1.255922918772747406e-09
-1.454630373590728849e-15
-1.322946934434028303e-10
-1.454630373422161107e-15
-1.322946934433001306e-10
1.292875980564752617e-11
9.776021679059742096e-09
1.341464956131833185e-12
1.220026051693464837e-07
2.272770198731896889e-07
2.120981257231111059e-03
-1.029423033245539972e-02
-1.192294518278325235e-08
-1.084359577894118644e-03
1.553706553706427316e-18
1.413054037500044005e-13
1.799528228115161832e-24
1.636622193725969593e-19
1.636622193537582349e-19
1.488463566639129466e-14
3.951147589687579488e-03
-1.255922918772011009e-09
2.067022950760319736e-02
1.918350750217153863e-09
-1.380934923974740081e-14
-1.599421313474201710e-20
-1.454630373423290361e-15
1.553706553706427316e-18
1.413054037500044005e-13
1.799528228115161465e-24
1.636622193725969834e-19
1.636622193537582349e-19
1.488463566639129466e-14
1.132274748289298496e-14
1.029773222499937222e-09
-1.006366189109119315e-10
7.504545909139061090e-06
1.158216281971011532e-06
-1.380934923974740081e-14
-1.599421313474201710e-20
-1.454630373423290164e-15
1.029773222381304840e-09
9.365508603436574508e-05
-9.152627973203790178e-06
-1.084359577893379868e-03
1.059711781375726104e-04
4.459861647652961671e-08
-1.380934923814712547e-14
1.341464956131833185e-12
1.553706554064408389e-18
1.413054037662964860e-13
1.744688059752971332e-04
2.632359449349774534e-13
-1.599421313288855328e-20
-1.454630373422161107e-15
1.421566218151807450e-16
-1.192294518140970240e-08
-1.380934923974740081e-14
-1.255922918628181464e-09
8.251533099362203936e-11
-1.599421313288855328e-20
-1.454630373422161107e-15
1.421566218151807697e-16
1.109580656585056752e-02
1.285134382764948554e-08
1.168794920607789780e-03
-1.142227885131588927e-04
1.311419049133294226e-20
1.192700113037184510e-15
-1.165589705851300111e-16
2.701075501686458993e-14
2.456555025880186046e-09
-2.400716843005740093e-10
1.820060314592755067e-07
1.655295570385321297e-02
-1.617670239058856133e-03
-1.380934923814712547e-14
-1.255922918627206632e-09
1.227375439385870982e-10
1.220026051552915072e-07
1.413054037500178048e-13
1.285134382617020205e-08
1.918350749987649293e-09
2.456555025880418898e-09
2.234170274548022720e-04
-2.183386959275789130e-05
2.272770198470496434e-07
2.632359449350269813e-13
2.394059636779044340e-08
-2.339641991577972307e-09
-8.688931460019709064e-05
1.341464955977293390e-12
1.220026051552915072e-07
2.272770198470068947e-07
2.394059636778367045e-08
2.177332410483456826e-03
-2.127841035759834708e-04
2.632359449349775039e-13
2.394059637054167590e-08
-2.339641991848657650e-09
1.220026051552915072e-07
1.109580656585056752e-02
1.413054037500178048e-13
1.285134382764948554e-08
1.285134382617020040e-08
1.168794920607789780e-03
1.968428064376722157e-10
4.054289759675651686e-04
1.053366344908053115e-01
1.220026051693349164e-07
1.109580656585056752e-02
-1.255922918627325953e-09
2.067022950760904684e-02
2.394059637054845547e-08
2.177332410484279519e-03
-2.127841035758987133e-04
1.744688059760707386e-04
4.056123398687145817e-03
1.553706553527436972e-18
1.413054037337256940e-13
1.799528227907852016e-24
1.636622193537427311e-19
1.636622193349039826e-19
1.488463566467655402e-14
1.132274748158857979e-14
1.029773222381305047e-09
-1.006366188993183619e-10
-1.084359577894118644e-03
-1.255922918772866520e-09
-1.142227885132475397e-04
1.029773222381402654e-09
-1.380934923815653342e-14
-1.599421313289944983e-20
-1.454630373255713625e-15
3.048841574237155797e-19
2.772838851645747376e-14
-2.709811448942204070e-15
1.413054037500177796e-13
1.285134382764948554e-08
1.636622193726125112e-19
1.488463566810603845e-14
1.488463566639270514e-14
1.353717307488909167e-09
-1.255922918772866727e-09
-1.454630373590866900e-15
-1.322946934434153672e-10
-1.454630373422299158e-15
-1.322946934433126676e-10
1.292875980564875402e-11
1.918350749996155605e-09
1.341464955977293390e-12
1.553706553885417853e-18
1.413054037500178048e-13
1.341464955977293390e-12
1.553706553885417853e-18
1.413054037500178048e-13
1.341464955977293390e-12
1.553706553885417853e-18
1.413054037500177796e-13
-1.255922918627325746e-09
-1.142227885131588656e-04
1.116264725803856433e-05
4.318931864525094727e-02
9.776021680144453812e-09
1.132274748414931695e-14
1.029773222495662560e-09
-1.006366189104160884e-10
2.332099404959219642e-08
2.701075502309845595e-14
2.456555026164371804e-09
-2.400716843281603276e-10
1.968428064385842857e-10
4.576283471374783060e-09
-1.380934924132886025e-14
-1.192294518277512943e-08
-1.599421313104598300e-20
-1.454630373254584568e-15
1.421566217988040173e-16
1.158216282104440609e-06
1.158216281971011532e-06
1.158216282104440609e-06
1.158216281971011532e-06
1.158216282104440609e-06
1.158216281971011532e-06
1.341464956131833185e-12
1.341464955977293390e-12
1.053366344908153035e-01
1.341464955822753595e-12
1.341464955977293390e-12
1.341464955822753595e-12
1.341464955977293390e-12
1.053366344908053115e-01
9.776021679018235827e-09
8.440583879915117965e-03
-1.192294518140157948e-08
1.553706553885417853e-18
1.220026051693349164e-07
9.776021680185961735e-09
1.132274748419739171e-14
1.220026051693464837e-07
1.220026051552915072e-07
-1.029423033244838623e-02
1.571433887544625707e-01
1.553706553706427316e-18
1.220026051552799399e-07
1.341464955977293390e-12
1.341464956131833185e-12
1.341464955977293390e-12
1.341464956131833185e-12
1.341464955977293390e-12
1.341464956131833185e-12
1.341464955977293390e-12
1.053366344908153035e-01
9.776021679059742096e-09
1.132274748284491020e-14
8.891026990438270685e-04
1.132274748289298496e-14
9.776021680144453812e-09
1.029773222499937016e-09
-8.688931459982817730e-05
1.820060314802430132e-07
1.820060314592755067e-07
-1.192294518277512943e-08
1.132274748289298654e-14
2.332099404958315699e-08
-1.192294518140970240e-08
-1.192294518278325235e-08
8.440583879879280313e-03
2.120981257230909831e-03
1.341464955822753595e-12
1.341464955977293390e-12
1.341464955822753595e-12
1.341464955977293390e-12
1.341464955822753595e-12
1.341464955977293390e-12
1.341464955822753595e-12
1.341464955977293390e-12
1.053366344908053115e-01
8.891026990476865030e-04
-8.688931460025628808e-05
1.132274748158857979e-14
1.553706553885417853e-18
1.220026051693464837e-07
2.701075501997628648e-14
9.776021679018235827e-09
1.285134382616898113e-08
1.326381953948746126e-03
1.413054037337390984e-13
-1.192294518140157948e-08
1.968428064149954728e-10
2.332099404690556673e-08
-2.020038940910079493e-03
-1.006366188992497964e-10
-1.192294518140157948e-08
2.332099404689652730e-08
4.576283471373869853e-09
1.790232020931100385e-05
1.220026051552799399e-07
1.220026051693349164e-07
1.220026051552799399e-07
-1.029423033245539972e-02
-1.084359577893276869e-03
2.632359449046521256e-13
2.394059636778593692e-08
1.192700112899895892e-15
4.459861647139175970e-08
1.553706553706427316e-18
1.220026051552915072e-07
-1.380934923973799286e-14
1.553706553706427316e-18
1.553706553885417853e-18
1.553706553706427316e-18
1.220026051552915072e-07
1.220026051693349164e-07
-1.380934923973799286e-14
1.553706553706427316e-18
1.553706553885417853e-18
1.220026051693349164e-07
-1.380934923973799286e-14
2.621153783011101468e-02
5.002257206216383391e-08
2.272770198732324641e-07
1.132274748414931695e-14
1.132274748284491178e-14
8.891026990439114194e-04
8.251533100312798604e-11
2.120981257231933318e-03
9.776021680185961735e-09
