1.000000000000000000e+00
1.158216282104440609e-06
1.053366344908153035e-01
1.158216281971011532e-06
1.053366344908053115e-01
1.341464955977293390e-12
1.220026051693349164e-07
1.220026051552915072e-07
1.109580656585056752e-02
-1.029423033244838623e-02
1.158216282104440609e-06
-1.029423033245539972e-02
-1.192294518278325235e-08
-1.084359577894118644e-03
-1.192294518140157948e-08
-1.084359577893276869e-03
1.059711781375726104e-04
1.341464956131833185e-12
1.220026051693464837e-07
1.158216281971011532e-06
1.341464955977293390e-12
1.220026051552915072e-07
-1.192294518277512943e-08
1.341464955977293390e-12
1.220026051693349164e-07
1.553706553885417853e-18
1.413054037662830817e-13
1.413054037500177796e-13
1.285134382764948554e-08
1.158216282104440609e-06
1.158216281971011532e-06
1.158216282104440609e-06
1.158216281971011532e-06
1.158216282104440609e-06
1.158216281971011532e-06
1.158216282104440609e-06
1.158216281971011532e-06
1.158216282104440609e-06
1.158216281971011532e-06
1.158216282104440609e-06
1.158216281971011532e-06
8.440583879915117965e-03
1.053366344908153035e-01
8.440583879879280313e-03
1.341464955822753595e-12
1.341464955977293390e-12
1.053366344908053115e-01
-1.192294518140157948e-08
-1.192294518278325235e-08
-1.380934923973799286e-14
