1.000000000000000000e+00
1.158216282104440609e-06
1.053366344908153035e-01
1.158216281971011532e-06
1.053366344908053115e-01
1.341464955977293390e-12
1.220026051693349164e-07
1.220026051552915072e-07
1.109580656585056752e-02
-1.029423033244838623e-02
1.158216282104440609e-06
-1.029423033245539972e-02
-1.192294518278325235e-08
-1.084359577894118644e-03
-1.192294518140157948e-08
-1.084359577893276869e-03
1.059711781375726104e-04
1.341464956131833185e-12
1.220026051693464837e-07
1.158216281971011532e-06
1.341464955977293390e-12
1.220026051552915072e-07
-1.192294518277512943e-08
1.341464955977293390e-12
1.220026051693349164e-07
1.553706553885417853e-18
1.413054037662830817e-13
1.413054037500177796e-13
1.285134382764948554e-08
8.440583879915117965e-03
1.053366344908153035e-01
1.220026051693464837e-07
1.109580656585162049e-02
1.158216282104440609e-06
-1.192294518140157948e-08
1.341464955822753595e-12
1.220026051552799399e-07
-1.192294518278325235e-08
-1.380934924133826820e-14
-1.255922918772866727e-09
1.553706553706427316e-18
1.413054037500044005e-13
1.413054037337390984e-13
1.285134382616898279e-08
-1.380934923973799286e-14
-1.255922918771891688e-09
1.227375439527267168e-10
1.341464956131833185e-12
1.220026051693464837e-07
1.962302062100481637e-01
1.158216281971011532e-06
-1.084359577893379868e-03
9.776021679059742096e-09
8.891026990476021520e-04
-8.688931460025628808e-05
-1.192294518140970240e-08
-1.380934923974740081e-14
-1.255922918628181464e-09
-1.380934923814712547e-14
-1.255922918627206632e-09
1.158216282104440609e-06
1.158216281971011532e-06
1.158216282104440609e-06
1.158216281971011532e-06
1.158216282104440609e-06
1.158216281971011532e-06
1.158216282104440609e-06
1.158216281971011532e-06
1.158216282104440609e-06
1.158216281971011532e-06
8.440583879879280313e-03
1.341464955977293390e-12
1.053366344908053115e-01
9.776021680185961735e-09
1.220026051552915072e-07
-1.029423033244838623e-02
1.341464955977293390e-12
1.341464956131833185e-12
1.341464955977293390e-12
1.053366344908153035e-01
9.776021679059742096e-09
-1.192294518277512943e-08
2.013526697035348395e-02
1.341464955977293390e-12
1.341464955822753595e-12
1.341464955977293390e-12
1.341464955822753595e-12
1.341464955977293390e-12
1.053366344908053115e-01
2.272770198470068947e-07
