1.000000000000000000e+00
1.158216282104440609e-06
1.053366344908153035e-01
1.158216281971011532e-06
1.053366344908053115e-01
1.341464955977293390e-12
1.220026051693349164e-07
1.220026051552915072e-07
1.109580656585056752e-02
-1.029423033244838623e-02
1.158216282104440609e-06
-1.029423033245539972e-02
-1.192294518278325235e-08
-1.084359577894118644e-03
-1.192294518140157948e-08
-1.084359577893276869e-03
1.059711781375726104e-04
1.341464956131833185e-12
1.220026051693464837e-07
1.158216281971011532e-06
1.341464955977293390e-12
1.220026051552915072e-07
-1.192294518277512943e-08
1.341464955977293390e-12
1.220026051693349164e-07
1.553706553885417853e-18
1.413054037662830817e-13
1.413054037500177796e-13
1.285134382764948554e-08
8.440583879915117965e-03
1.053366344908153035e-01
1.220026051693464837e-07
1.109580656585162049e-02
1.158216282104440609e-06
-1.192294518140157948e-08
1.341464955822753595e-12
1.220026051552799399e-07
-1.192294518278325235e-08
-1.380934924133826820e-14
-1.255922918772866727e-09
1.553706553706427316e-18
1.413054037500044005e-13
1.413054037337390984e-13
1.285134382616898279e-08
-1.380934923973799286e-14
-1.255922918771891688e-09
1.227375439527267168e-10
1.341464956131833185e-12
1.220026051693464837e-07
1.962302062100481637e-01
1.158216281971011532e-06
-1.084359577893379868e-03
9.776021679059742096e-09
8.891026990476021520e-04
-8.688931460025628808e-05
-1.192294518140970240e-08
-1.380934923974740081e-14
-1.255922918628181464e-09
-1.380934923814712547e-14
-1.255922918627206632e-09
1.227375439385870982e-10
1.341464955977293390e-12
1.220026051552915072e-07
1.220026051552915072e-07
1.109580656585056752e-02
1.413054037500178048e-13
1.285134382764948554e-08
1.285134382617020040e-08
1.168794920607789780e-03
1.053366344908053115e-01
1.220026051693349164e-07
1.109580656585056752e-02
-1.084359577894118644e-03
-1.255922918772866520e-09
-1.142227885132475397e-04
2.272770198470068947e-07
2.067022950760319736e-02
-2.020038940911455562e-03
1.341464955977293390e-12
1.553706553885417853e-18
1.413054037500178048e-13
-1.255922918627325746e-09
-1.142227885131588656e-04
1.116264725803856433e-05
-1.192294518277512943e-08
1.341464955977293390e-12
1.220026051693349164e-07
1.553706553885417853e-18
1.413054037662830817e-13
1.413054037500177796e-13
1.285134382764948554e-08
8.440583879879280313e-03
9.776021680144453812e-09
8.891026990439114194e-04
-8.688931459982817730e-05
9.776021680185961735e-09
-1.084359577893276869e-03
2.013526697035348395e-02
1.158216282104440609e-06
-1.192294518140157948e-08
-1.380934923973799286e-14
1.341464955822753595e-12
1.220026051552799399e-07
1.553706553706427316e-18
1.413054037500044005e-13
1.413054037337390984e-13
1.285134382616898279e-08
-1.192294518278325235e-08
-1.380934924133826820e-14
-1.255922918772866727e-09
1.220026051552799399e-07
1.109580656584951454e-02
1.413054037500044005e-13
1.285134382764826627e-08
1.285134382616898113e-08
1.168794920607678974e-03
-1.380934923973799286e-14
-1.255922918771891688e-09
1.227375439527267168e-10
-1.084359577894015644e-03
-1.255922918772747406e-09
-1.142227885132367113e-04
2.272770198731896889e-07
1.341464956131833185e-12
1.220026051693464837e-07
9.776021679059742096e-09
1.132274748289298496e-14
1.029773222499937222e-09
-1.006366189109119315e-10
1.553706553706427316e-18
1.413054037500044005e-13
1.799528228115161832e-24
1.636622193725969593e-19
1.636622193537582349e-19
1.488463566639129466e-14
2.332099404689652730e-08
2.120981257230909831e-03
-2.072770759983001698e-04
-1.255922918627206632e-09
-1.142227885131480371e-04
1.116264725803750554e-05
-1.380934923974740081e-14
-1.599421313474201710e-20
-1.454630373423290361e-15
1.158216281971011532e-06
1.962302062100850786e-01
2.272770198732324641e-07
2.067022950760904684e-02
1.158216282104440609e-06
1.158216281971011532e-06
1.158216282104440609e-06
1.158216281971011532e-06
1.158216282104440609e-06
1.158216281971011532e-06
1.158216282104440609e-06
1.158216281971011532e-06
-1.029423033244838623e-02
1.341464956131833185e-12
1.341464955977293390e-12
1.053366344908153035e-01
1.341464955977293390e-12
1.341464955822753595e-12
1.341464955977293390e-12
1.053366344908053115e-01
-1.029423033245539972e-02
1.220026051552915072e-07
1.220026051693349164e-07
9.776021680185961735e-09
9.776021680144453812e-09
9.776021679018235827e-09
7.124345623358045113e-05
8.891026990476865030e-04
1.571433887542524332e-01
1.341464955977293390e-12
1.341464956131833185e-12
1.341464955977293390e-12
1.341464956131833185e-12
1.341464955977293390e-12
1.053366344908153035e-01
9.776021679059742096e-09
-1.192294518140970240e-08
-1.380934923814712547e-14
9.776021680144453812e-09
2.332099404958315699e-08
-1.192294518277512943e-08
2.272770198470068947e-07
1.132274748158857979e-14
1.132274748289298654e-14
8.891026990476021520e-04
2.632359449349775039e-13
-1.599421313288855328e-20
1.341464955977293390e-12
1.341464955822753595e-12
1.341464955977293390e-12
1.341464955822753595e-12
1.341464955977293390e-12
1.341464955822753595e-12
1.341464955977293390e-12
1.053366344908053115e-01
2.013526697036129021e-02
